digraph Tree {
node [shape=box, style="filled, rounded", color="black", fontname="helvetica"] ;
edge [fontname="helvetica"] ;
0 [label="age <= 49.5\ngini = 0.5\nsamples = 1070\nvalue = [523, 547]\nclass = High", fillcolor="#f6fbfe"] ;
1 [label="smoker <= 0.5\ngini = 0.439\nsamples = 756\nvalue = [510.0, 246.0]\nclass = Low", fillcolor="#f2be99"] ;
0 -> 1 [labeldistance=2.5, labelangle=45, headlabel="True"] ;
2 [label="age <= 46.5\ngini = 0.232\nsamples = 589\nvalue = [510, 79]\nclass = Low", fillcolor="#e99558"] ;
1 -> 2 ;
3 [label="age <= 42.5\ngini = 0.184\nsamples = 536\nvalue = [481, 55]\nclass = Low", fillcolor="#e88f50"] ;
2 -> 3 ;
4 [label="age <= 35.5\ngini = 0.164\nsamples = 467\nvalue = [425, 42]\nclass = Low", fillcolor="#e88d4d"] ;
3 -> 4 ;
5 [label="children <= 0.5\ngini = 0.194\nsamples = 349\nvalue = [311, 38]\nclass = Low", fillcolor="#e89051"] ;
4 -> 5 ;
6 [label="bmi <= 38.225\ngini = 0.139\nsamples = 173\nvalue = [160, 13]\nclass = Low", fillcolor="#e78b49"] ;
5 -> 6 ;
7 [label="bmi <= 33.935\ngini = 0.121\nsamples = 155\nvalue = [145, 10]\nclass = Low", fillcolor="#e78a47"] ;
6 -> 7 ;
8 [label="bmi <= 33.74\ngini = 0.144\nsamples = 128\nvalue = [118, 10]\nclass = Low", fillcolor="#e78c4a"] ;
7 -> 8 ;
9 [label="bmi <= 33.365\ngini = 0.119\nsamples = 126\nvalue = [118, 8]\nclass = Low", fillcolor="#e78a46"] ;
8 -> 9 ;
10 [label="bmi <= 19.257\ngini = 0.108\nsamples = 122\nvalue = [115, 7]\nclass = Low", fillcolor="#e78945"] ;
9 -> 10 ;
11 [label="bmi <= 18.658\ngini = 0.32\nsamples = 5\nvalue = [4, 1]\nclass = Low", fillcolor="#eca06a"] ;
10 -> 11 ;
12 [label="gini = 0.0\nsamples = 4\nvalue = [4, 0]\nclass = Low", fillcolor="#e58139"] ;
11 -> 12 ;
13 [label="gini = 0.0\nsamples = 1\nvalue = [0, 1]\nclass = High", fillcolor="#399de5"] ;
11 -> 13 ;
14 [label="region <= 1.5\ngini = 0.097\nsamples = 117\nvalue = [111, 6]\nclass = Low", fillcolor="#e68844"] ;
10 -> 14 ;
15 [label="age <= 32.5\ngini = 0.058\nsamples = 67\nvalue = [65, 2]\nclass = Low", fillcolor="#e6853f"] ;
14 -> 15 ;
16 [label="age <= 18.5\ngini = 0.032\nsamples = 62\nvalue = [61, 1]\nclass = Low", fillcolor="#e5833c"] ;
15 -> 16 ;
17 [label="bmi <= 29.307\ngini = 0.153\nsamples = 12\nvalue = [11, 1]\nclass = Low", fillcolor="#e78c4b"] ;
16 -> 17 ;
18 [label="gini = 0.0\nsamples = 7\nvalue = [7, 0]\nclass = Low", fillcolor="#e58139"] ;
17 -> 18 ;
19 [label="bmi <= 30.21\ngini = 0.32\nsamples = 5\nvalue = [4, 1]\nclass = Low", fillcolor="#eca06a"] ;
17 -> 19 ;
20 [label="gini = 0.5\nsamples = 2\nvalue = [1, 1]\nclass = Low", fillcolor="#ffffff"] ;
19 -> 20 ;
21 [label="gini = 0.0\nsamples = 3\nvalue = [3, 0]\nclass = Low", fillcolor="#e58139"] ;
19 -> 21 ;
22 [label="gini = 0.0\nsamples = 50\nvalue = [50, 0]\nclass = Low", fillcolor="#e58139"] ;
16 -> 22 ;
23 [label="age <= 33.5\ngini = 0.32\nsamples = 5\nvalue = [4, 1]\nclass = Low", fillcolor="#eca06a"] ;
15 -> 23 ;
24 [label="bmi <= 24.7\ngini = 0.5\nsamples = 2\nvalue = [1, 1]\nclass = Low", fillcolor="#ffffff"] ;
23 -> 24 ;
25 [label="gini = 0.0\nsamples = 1\nvalue = [0, 1]\nclass = High", fillcolor="#399de5"] ;
24 -> 25 ;
26 [label="gini = 0.0\nsamples = 1\nvalue = [1, 0]\nclass = Low", fillcolor="#e58139"] ;
24 -> 26 ;
27 [label="gini = 0.0\nsamples = 3\nvalue = [3, 0]\nclass = Low", fillcolor="#e58139"] ;
23 -> 27 ;
28 [label="age <= 20.5\ngini = 0.147\nsamples = 50\nvalue = [46, 4]\nclass = Low", fillcolor="#e78c4a"] ;
14 -> 28 ;
29 [label="gini = 0.0\nsamples = 16\nvalue = [16, 0]\nclass = Low", fillcolor="#e58139"] ;
28 -> 29 ;
30 [label="age <= 25.0\ngini = 0.208\nsamples = 34\nvalue = [30, 4]\nclass = Low", fillcolor="#e89253"] ;
28 -> 30 ;
31 [label="sex <= 0.5\ngini = 0.332\nsamples = 19\nvalue = [15, 4]\nclass = Low", fillcolor="#eca36e"] ;
30 -> 31 ;
32 [label="age <= 22.5\ngini = 0.444\nsamples = 9\nvalue = [6, 3]\nclass = Low", fillcolor="#f2c09c"] ;
31 -> 32 ;
33 [label="gini = 0.0\nsamples = 4\nvalue = [4, 0]\nclass = Low", fillcolor="#e58139"] ;
32 -> 33 ;
34 [label="bmi <= 22.905\ngini = 0.48\nsamples = 5\nvalue = [2, 3]\nclass = High", fillcolor="#bddef6"] ;
32 -> 34 ;
35 [label="gini = 0.0\nsamples = 1\nvalue = [1, 0]\nclass = Low", fillcolor="#e58139"] ;
34 -> 35 ;
36 [label="region <= 2.5\ngini = 0.375\nsamples = 4\nvalue = [1, 3]\nclass = High", fillcolor="#7bbeee"] ;
34 -> 36 ;
37 [label="bmi <= 25.465\ngini = 0.5\nsamples = 2\nvalue = [1, 1]\nclass = Low", fillcolor="#ffffff"] ;
36 -> 37 ;
38 [label="gini = 0.0\nsamples = 1\nvalue = [0, 1]\nclass = High", fillcolor="#399de5"] ;
37 -> 38 ;
39 [label="gini = 0.0\nsamples = 1\nvalue = [1, 0]\nclass = Low", fillcolor="#e58139"] ;
37 -> 39 ;
40 [label="gini = 0.0\nsamples = 2\nvalue = [0, 2]\nclass = High", fillcolor="#399de5"] ;
36 -> 40 ;
41 [label="age <= 21.5\ngini = 0.18\nsamples = 10\nvalue = [9, 1]\nclass = Low", fillcolor="#e88f4f"] ;
31 -> 41 ;
42 [label="region <= 2.5\ngini = 0.444\nsamples = 3\nvalue = [2, 1]\nclass = Low", fillcolor="#f2c09c"] ;
41 -> 42 ;
43 [label="bmi <= 27.115\ngini = 0.5\nsamples = 2\nvalue = [1, 1]\nclass = Low", fillcolor="#ffffff"] ;
42 -> 43 ;
44 [label="gini = 0.0\nsamples = 1\nvalue = [1, 0]\nclass = Low", fillcolor="#e58139"] ;
43 -> 44 ;
45 [label="gini = 0.0\nsamples = 1\nvalue = [0, 1]\nclass = High", fillcolor="#399de5"] ;
43 -> 45 ;
46 [label="gini = 0.0\nsamples = 1\nvalue = [1, 0]\nclass = Low", fillcolor="#e58139"] ;
42 -> 46 ;
47 [label="gini = 0.0\nsamples = 7\nvalue = [7, 0]\nclass = Low", fillcolor="#e58139"] ;
41 -> 47 ;
48 [label="gini = 0.0\nsamples = 15\nvalue = [15, 0]\nclass = Low", fillcolor="#e58139"] ;
30 -> 48 ;
49 [label="region <= 2.5\ngini = 0.375\nsamples = 4\nvalue = [3, 1]\nclass = Low", fillcolor="#eeab7b"] ;
9 -> 49 ;
50 [label="gini = 0.0\nsamples = 2\nvalue = [2, 0]\nclass = Low", fillcolor="#e58139"] ;
49 -> 50 ;
51 [label="age <= 25.5\ngini = 0.5\nsamples = 2\nvalue = [1, 1]\nclass = Low", fillcolor="#ffffff"] ;
49 -> 51 ;
52 [label="gini = 0.0\nsamples = 1\nvalue = [0, 1]\nclass = High", fillcolor="#399de5"] ;
51 -> 52 ;
53 [label="gini = 0.0\nsamples = 1\nvalue = [1, 0]\nclass = Low", fillcolor="#e58139"] ;
51 -> 53 ;
54 [label="gini = 0.0\nsamples = 2\nvalue = [0, 2]\nclass = High", fillcolor="#399de5"] ;
8 -> 54 ;
55 [label="gini = 0.0\nsamples = 27\nvalue = [27, 0]\nclass = Low", fillcolor="#e58139"] ;
7 -> 55 ;
56 [label="bmi <= 39.15\ngini = 0.278\nsamples = 18\nvalue = [15, 3]\nclass = Low", fillcolor="#ea9a61"] ;
6 -> 56 ;
57 [label="bmi <= 38.71\ngini = 0.444\nsamples = 3\nvalue = [1, 2]\nclass = High", fillcolor="#9ccef2"] ;
56 -> 57 ;
58 [label="gini = 0.5\nsamples = 2\nvalue = [1, 1]\nclass = Low", fillcolor="#ffffff"] ;
57 -> 58 ;
59 [label="gini = 0.0\nsamples = 1\nvalue = [0, 1]\nclass = High", fillcolor="#399de5"] ;
57 -> 59 ;
60 [label="region <= 0.5\ngini = 0.124\nsamples = 15\nvalue = [14, 1]\nclass = Low", fillcolor="#e78a47"] ;
56 -> 60 ;
61 [label="bmi <= 40.898\ngini = 0.375\nsamples = 4\nvalue = [3, 1]\nclass = Low", fillcolor="#eeab7b"] ;
60 -> 61 ;
62 [label="gini = 0.0\nsamples = 3\nvalue = [3, 0]\nclass = Low", fillcolor="#e58139"] ;
61 -> 62 ;
63 [label="gini = 0.0\nsamples = 1\nvalue = [0, 1]\nclass = High", fillcolor="#399de5"] ;
61 -> 63 ;
64 [label="gini = 0.0\nsamples = 11\nvalue = [11, 0]\nclass = Low", fillcolor="#e58139"] ;
60 -> 64 ;
65 [label="region <= 0.5\ngini = 0.244\nsamples = 176\nvalue = [151.0, 25.0]\nclass = Low", fillcolor="#e9965a"] ;
5 -> 65 ;
66 [label="age <= 34.5\ngini = 0.393\nsamples = 41\nvalue = [30, 11]\nclass = Low", fillcolor="#efaf82"] ;
65 -> 66 ;
67 [label="age <= 27.5\ngini = 0.355\nsamples = 39\nvalue = [30, 9]\nclass = Low", fillcolor="#eda774"] ;
66 -> 67 ;
68 [label="age <= 22.5\ngini = 0.455\nsamples = 20\nvalue = [13, 7]\nclass = Low", fillcolor="#f3c5a4"] ;
67 -> 68 ;
69 [label="children <= 1.5\ngini = 0.198\nsamples = 9\nvalue = [8, 1]\nclass = Low", fillcolor="#e89152"] ;
68 -> 69 ;
70 [label="gini = 0.0\nsamples = 1\nvalue = [0, 1]\nclass = High", fillcolor="#399de5"] ;
69 -> 70 ;
71 [label="gini = 0.0\nsamples = 8\nvalue = [8, 0]\nclass = Low", fillcolor="#e58139"] ;
69 -> 71 ;
72 [label="sex <= 0.5\ngini = 0.496\nsamples = 11\nvalue = [5, 6]\nclass = High", fillcolor="#deeffb"] ;
68 -> 72 ;
73 [label="bmi <= 29.497\ngini = 0.32\nsamples = 5\nvalue = [1, 4]\nclass = High", fillcolor="#6ab6ec"] ;
72 -> 73 ;
74 [label="bmi <= 26.79\ngini = 0.5\nsamples = 2\nvalue = [1, 1]\nclass = Low", fillcolor="#ffffff"] ;
73 -> 74 ;
75 [label="gini = 0.0\nsamples = 1\nvalue = [0, 1]\nclass = High", fillcolor="#399de5"] ;
74 -> 75 ;
76 [label="gini = 0.0\nsamples = 1\nvalue = [1, 0]\nclass = Low", fillcolor="#e58139"] ;
74 -> 76 ;
77 [label="gini = 0.0\nsamples = 3\nvalue = [0, 3]\nclass = High", fillcolor="#399de5"] ;
73 -> 77 ;
78 [label="age <= 25.5\ngini = 0.444\nsamples = 6\nvalue = [4, 2]\nclass = Low", fillcolor="#f2c09c"] ;
72 -> 78 ;
79 [label="children <= 1.5\ngini = 0.444\nsamples = 3\nvalue = [1, 2]\nclass = High", fillcolor="#9ccef2"] ;
78 -> 79 ;
80 [label="gini = 0.0\nsamples = 1\nvalue = [1, 0]\nclass = Low", fillcolor="#e58139"] ;
79 -> 80 ;
81 [label="gini = 0.0\nsamples = 2\nvalue = [0, 2]\nclass = High", fillcolor="#399de5"] ;
79 -> 81 ;
82 [label="gini = 0.0\nsamples = 3\nvalue = [3, 0]\nclass = Low", fillcolor="#e58139"] ;
78 -> 82 ;
83 [label="bmi <= 25.602\ngini = 0.188\nsamples = 19\nvalue = [17, 2]\nclass = Low", fillcolor="#e89050"] ;
67 -> 83 ;
84 [label="bmi <= 23.608\ngini = 0.408\nsamples = 7\nvalue = [5, 2]\nclass = Low", fillcolor="#efb388"] ;
83 -> 84 ;
85 [label="age <= 33.5\ngini = 0.278\nsamples = 6\nvalue = [5, 1]\nclass = Low", fillcolor="#ea9a61"] ;
84 -> 85 ;
86 [label="gini = 0.0\nsamples = 4\nvalue = [4, 0]\nclass = Low", fillcolor="#e58139"] ;
85 -> 86 ;
87 [label="children <= 2.5\ngini = 0.5\nsamples = 2\nvalue = [1, 1]\nclass = Low", fillcolor="#ffffff"] ;
85 -> 87 ;
88 [label="gini = 0.0\nsamples = 1\nvalue = [0, 1]\nclass = High", fillcolor="#399de5"] ;
87 -> 88 ;
89 [label="gini = 0.0\nsamples = 1\nvalue = [1, 0]\nclass = Low", fillcolor="#e58139"] ;
87 -> 89 ;
90 [label="gini = 0.0\nsamples = 1\nvalue = [0, 1]\nclass = High", fillcolor="#399de5"] ;
84 -> 90 ;
91 [label="gini = 0.0\nsamples = 12\nvalue = [12, 0]\nclass = Low", fillcolor="#e58139"] ;
83 -> 91 ;
92 [label="gini = 0.0\nsamples = 2\nvalue = [0, 2]\nclass = High", fillcolor="#399de5"] ;
66 -> 92 ;
93 [label="region <= 2.5\ngini = 0.186\nsamples = 135\nvalue = [121, 14]\nclass = Low", fillcolor="#e89050"] ;
65 -> 93 ;
94 [label="age <= 24.5\ngini = 0.233\nsamples = 89\nvalue = [77, 12]\nclass = Low", fillcolor="#e99558"] ;
93 -> 94 ;
95 [label="bmi <= 36.3\ngini = 0.358\nsamples = 30\nvalue = [23, 7]\nclass = Low", fillcolor="#eda775"] ;
94 -> 95 ;
96 [label="bmi <= 35.135\ngini = 0.393\nsamples = 26\nvalue = [19, 7]\nclass = Low", fillcolor="#efaf82"] ;
95 -> 96 ;
97 [label="children <= 1.5\ngini = 0.365\nsamples = 25\nvalue = [19, 6]\nclass = Low", fillcolor="#eda978"] ;
96 -> 97 ;
98 [label="age <= 23.5\ngini = 0.18\nsamples = 10\nvalue = [9, 1]\nclass = Low", fillcolor="#e88f4f"] ;
97 -> 98 ;
99 [label="gini = 0.0\nsamples = 9\nvalue = [9, 0]\nclass = Low", fillcolor="#e58139"] ;
98 -> 99 ;
100 [label="gini = 0.0\nsamples = 1\nvalue = [0, 1]\nclass = High", fillcolor="#399de5"] ;
98 -> 100 ;
101 [label="age <= 19.5\ngini = 0.444\nsamples = 15\nvalue = [10, 5]\nclass = Low", fillcolor="#f2c09c"] ;
97 -> 101 ;
102 [label="children <= 2.5\ngini = 0.5\nsamples = 6\nvalue = [3, 3]\nclass = Low", fillcolor="#ffffff"] ;
101 -> 102 ;
103 [label="bmi <= 21.198\ngini = 0.48\nsamples = 5\nvalue = [3, 2]\nclass = Low", fillcolor="#f6d5bd"] ;
102 -> 103 ;
104 [label="gini = 0.0\nsamples = 1\nvalue = [1, 0]\nclass = Low", fillcolor="#e58139"] ;
103 -> 104 ;
105 [label="bmi <= 23.98\ngini = 0.5\nsamples = 4\nvalue = [2, 2]\nclass = Low", fillcolor="#ffffff"] ;
103 -> 105 ;
106 [label="gini = 0.0\nsamples = 1\nvalue = [0, 1]\nclass = High", fillcolor="#399de5"] ;
105 -> 106 ;
107 [label="region <= 1.5\ngini = 0.444\nsamples = 3\nvalue = [2, 1]\nclass = Low", fillcolor="#f2c09c"] ;
105 -> 107 ;
108 [label="gini = 0.0\nsamples = 1\nvalue = [0, 1]\nclass = High", fillcolor="#399de5"] ;
107 -> 108 ;
109 [label="gini = 0.0\nsamples = 2\nvalue = [2, 0]\nclass = Low", fillcolor="#e58139"] ;
107 -> 109 ;
110 [label="gini = 0.0\nsamples = 1\nvalue = [0, 1]\nclass = High", fillcolor="#399de5"] ;
102 -> 110 ;
111 [label="sex <= 0.5\ngini = 0.346\nsamples = 9\nvalue = [7, 2]\nclass = Low", fillcolor="#eca572"] ;
101 -> 111 ;
112 [label="region <= 1.5\ngini = 0.444\nsamples = 6\nvalue = [4, 2]\nclass = Low", fillcolor="#f2c09c"] ;
111 -> 112 ;
113 [label="children <= 2.5\ngini = 0.5\nsamples = 4\nvalue = [2, 2]\nclass = Low", fillcolor="#ffffff"] ;
112 -> 113 ;
114 [label="gini = 0.0\nsamples = 2\nvalue = [0, 2]\nclass = High", fillcolor="#399de5"] ;
113 -> 114 ;
115 [label="gini = 0.0\nsamples = 2\nvalue = [2, 0]\nclass = Low", fillcolor="#e58139"] ;
113 -> 115 ;
116 [label="gini = 0.0\nsamples = 2\nvalue = [2, 0]\nclass = Low", fillcolor="#e58139"] ;
112 -> 116 ;
117 [label="gini = 0.0\nsamples = 3\nvalue = [3, 0]\nclass = Low", fillcolor="#e58139"] ;
111 -> 117 ;
118 [label="gini = 0.0\nsamples = 1\nvalue = [0, 1]\nclass = High", fillcolor="#399de5"] ;
96 -> 118 ;
119 [label="gini = 0.0\nsamples = 4\nvalue = [4, 0]\nclass = Low", fillcolor="#e58139"] ;
95 -> 119 ;
120 [label="age <= 28.5\ngini = 0.155\nsamples = 59\nvalue = [54, 5]\nclass = Low", fillcolor="#e78d4b"] ;
94 -> 120 ;
121 [label="gini = 0.0\nsamples = 15\nvalue = [15, 0]\nclass = Low", fillcolor="#e58139"] ;
120 -> 121 ;
122 [label="age <= 30.5\ngini = 0.201\nsamples = 44\nvalue = [39, 5]\nclass = Low", fillcolor="#e89152"] ;
120 -> 122 ;
123 [label="sex <= 0.5\ngini = 0.375\nsamples = 12\nvalue = [9, 3]\nclass = Low", fillcolor="#eeab7b"] ;
122 -> 123 ;
124 [label="gini = 0.0\nsamples = 4\nvalue = [4, 0]\nclass = Low", fillcolor="#e58139"] ;
123 -> 124 ;
125 [label="bmi <= 26.932\ngini = 0.469\nsamples = 8\nvalue = [5, 3]\nclass = Low", fillcolor="#f5cdb0"] ;
123 -> 125 ;
126 [label="gini = 0.0\nsamples = 1\nvalue = [1, 0]\nclass = Low", fillcolor="#e58139"] ;
125 -> 126 ;
127 [label="bmi <= 30.733\ngini = 0.49\nsamples = 7\nvalue = [4, 3]\nclass = Low", fillcolor="#f8e0ce"] ;
125 -> 127 ;
128 [label="gini = 0.0\nsamples = 1\nvalue = [0, 1]\nclass = High", fillcolor="#399de5"] ;
127 -> 128 ;
129 [label="age <= 29.5\ngini = 0.444\nsamples = 6\nvalue = [4, 2]\nclass = Low", fillcolor="#f2c09c"] ;
127 -> 129 ;
130 [label="bmi <= 32.728\ngini = 0.32\nsamples = 5\nvalue = [4, 1]\nclass = Low", fillcolor="#eca06a"] ;
129 -> 130 ;
131 [label="gini = 0.0\nsamples = 2\nvalue = [2, 0]\nclass = Low", fillcolor="#e58139"] ;
130 -> 131 ;
132 [label="bmi <= 35.318\ngini = 0.444\nsamples = 3\nvalue = [2, 1]\nclass = Low", fillcolor="#f2c09c"] ;
130 -> 132 ;
133 [label="gini = 0.0\nsamples = 1\nvalue = [0, 1]\nclass = High", fillcolor="#399de5"] ;
132 -> 133 ;
134 [label="gini = 0.0\nsamples = 2\nvalue = [2, 0]\nclass = Low", fillcolor="#e58139"] ;
132 -> 134 ;
135 [label="gini = 0.0\nsamples = 1\nvalue = [0, 1]\nclass = High", fillcolor="#399de5"] ;
129 -> 135 ;
136 [label="bmi <= 23.89\ngini = 0.117\nsamples = 32\nvalue = [30, 2]\nclass = Low", fillcolor="#e78946"] ;
122 -> 136 ;
137 [label="bmi <= 20.755\ngini = 0.5\nsamples = 2\nvalue = [1, 1]\nclass = Low", fillcolor="#ffffff"] ;
136 -> 137 ;
138 [label="gini = 0.0\nsamples = 1\nvalue = [1, 0]\nclass = Low", fillcolor="#e58139"] ;
137 -> 138 ;
139 [label="gini = 0.0\nsamples = 1\nvalue = [0, 1]\nclass = High", fillcolor="#399de5"] ;
137 -> 139 ;
140 [label="bmi <= 42.295\ngini = 0.064\nsamples = 30\nvalue = [29, 1]\nclass = Low", fillcolor="#e68540"] ;
136 -> 140 ;
141 [label="gini = 0.0\nsamples = 26\nvalue = [26, 0]\nclass = Low", fillcolor="#e58139"] ;
140 -> 141 ;
142 [label="children <= 1.5\ngini = 0.375\nsamples = 4\nvalue = [3, 1]\nclass = Low", fillcolor="#eeab7b"] ;
140 -> 142 ;
143 [label="gini = 0.0\nsamples = 1\nvalue = [0, 1]\nclass = High", fillcolor="#399de5"] ;
142 -> 143 ;
144 [label="gini = 0.0\nsamples = 3\nvalue = [3, 0]\nclass = Low", fillcolor="#e58139"] ;
142 -> 144 ;
145 [label="age <= 33.5\ngini = 0.083\nsamples = 46\nvalue = [44, 2]\nclass = Low", fillcolor="#e68742"] ;
93 -> 145 ;
146 [label="gini = 0.0\nsamples = 36\nvalue = [36, 0]\nclass = Low", fillcolor="#e58139"] ;
145 -> 146 ;
147 [label="bmi <= 27.05\ngini = 0.32\nsamples = 10\nvalue = [8, 2]\nclass = Low", fillcolor="#eca06a"] ;
145 -> 147 ;
148 [label="gini = 0.0\nsamples = 1\nvalue = [0, 1]\nclass = High", fillcolor="#399de5"] ;
147 -> 148 ;
149 [label="age <= 34.5\ngini = 0.198\nsamples = 9\nvalue = [8, 1]\nclass = Low", fillcolor="#e89152"] ;
147 -> 149 ;
150 [label="sex <= 0.5\ngini = 0.444\nsamples = 3\nvalue = [2, 1]\nclass = Low", fillcolor="#f2c09c"] ;
149 -> 150 ;
151 [label="gini = 0.0\nsamples = 2\nvalue = [2, 0]\nclass = Low", fillcolor="#e58139"] ;
150 -> 151 ;
152 [label="gini = 0.0\nsamples = 1\nvalue = [0, 1]\nclass = High", fillcolor="#399de5"] ;
150 -> 152 ;
153 [label="gini = 0.0\nsamples = 6\nvalue = [6, 0]\nclass = Low", fillcolor="#e58139"] ;
149 -> 153 ;
154 [label="bmi <= 21.767\ngini = 0.065\nsamples = 118\nvalue = [114, 4]\nclass = Low", fillcolor="#e68540"] ;
4 -> 154 ;
155 [label="bmi <= 21.438\ngini = 0.219\nsamples = 8\nvalue = [7, 1]\nclass = Low", fillcolor="#e99355"] ;
154 -> 155 ;
156 [label="gini = 0.0\nsamples = 7\nvalue = [7, 0]\nclass = Low", fillcolor="#e58139"] ;
155 -> 156 ;
157 [label="gini = 0.0\nsamples = 1\nvalue = [0, 1]\nclass = High", fillcolor="#399de5"] ;
155 -> 157 ;
158 [label="bmi <= 33.96\ngini = 0.053\nsamples = 110\nvalue = [107, 3]\nclass = Low", fillcolor="#e6853f"] ;
154 -> 158 ;
159 [label="children <= 0.5\ngini = 0.023\nsamples = 85\nvalue = [84, 1]\nclass = Low", fillcolor="#e5823b"] ;
158 -> 159 ;
160 [label="region <= 2.5\ngini = 0.1\nsamples = 19\nvalue = [18, 1]\nclass = Low", fillcolor="#e68844"] ;
159 -> 160 ;
161 [label="gini = 0.0\nsamples = 11\nvalue = [11, 0]\nclass = Low", fillcolor="#e58139"] ;
160 -> 161 ;
162 [label="sex <= 0.5\ngini = 0.219\nsamples = 8\nvalue = [7, 1]\nclass = Low", fillcolor="#e99355"] ;
160 -> 162 ;
163 [label="gini = 0.0\nsamples = 4\nvalue = [4, 0]\nclass = Low", fillcolor="#e58139"] ;
162 -> 163 ;
164 [label="bmi <= 30.3\ngini = 0.375\nsamples = 4\nvalue = [3, 1]\nclass = Low", fillcolor="#eeab7b"] ;
162 -> 164 ;
165 [label="bmi <= 28.35\ngini = 0.5\nsamples = 2\nvalue = [1, 1]\nclass = Low", fillcolor="#ffffff"] ;
164 -> 165 ;
166 [label="gini = 0.0\nsamples = 1\nvalue = [1, 0]\nclass = Low", fillcolor="#e58139"] ;
165 -> 166 ;
167 [label="gini = 0.0\nsamples = 1\nvalue = [0, 1]\nclass = High", fillcolor="#399de5"] ;
165 -> 167 ;
168 [label="gini = 0.0\nsamples = 2\nvalue = [2, 0]\nclass = Low", fillcolor="#e58139"] ;
164 -> 168 ;
169 [label="gini = 0.0\nsamples = 66\nvalue = [66, 0]\nclass = Low", fillcolor="#e58139"] ;
159 -> 169 ;
170 [label="bmi <= 34.102\ngini = 0.147\nsamples = 25\nvalue = [23, 2]\nclass = Low", fillcolor="#e78c4a"] ;
158 -> 170 ;
171 [label="children <= 2.5\ngini = 0.5\nsamples = 2\nvalue = [1, 1]\nclass = Low", fillcolor="#ffffff"] ;
170 -> 171 ;
172 [label="gini = 0.0\nsamples = 1\nvalue = [0, 1]\nclass = High", fillcolor="#399de5"] ;
171 -> 172 ;
173 [label="gini = 0.0\nsamples = 1\nvalue = [1, 0]\nclass = Low", fillcolor="#e58139"] ;
171 -> 173 ;
174 [label="age <= 37.5\ngini = 0.083\nsamples = 23\nvalue = [22, 1]\nclass = Low", fillcolor="#e68742"] ;
170 -> 174 ;
175 [label="bmi <= 35.31\ngini = 0.444\nsamples = 3\nvalue = [2, 1]\nclass = Low", fillcolor="#f2c09c"] ;
174 -> 175 ;
176 [label="gini = 0.0\nsamples = 2\nvalue = [2, 0]\nclass = Low", fillcolor="#e58139"] ;
175 -> 176 ;
177 [label="gini = 0.0\nsamples = 1\nvalue = [0, 1]\nclass = High", fillcolor="#399de5"] ;
175 -> 177 ;
178 [label="gini = 0.0\nsamples = 20\nvalue = [20, 0]\nclass = Low", fillcolor="#e58139"] ;
174 -> 178 ;
179 [label="children <= 4.0\ngini = 0.306\nsamples = 69\nvalue = [56, 13]\nclass = Low", fillcolor="#eb9e67"] ;
3 -> 179 ;
180 [label="region <= 0.5\ngini = 0.257\nsamples = 66\nvalue = [56, 10]\nclass = Low", fillcolor="#ea985c"] ;
179 -> 180 ;
181 [label="bmi <= 34.722\ngini = 0.43\nsamples = 16\nvalue = [11, 5]\nclass = Low", fillcolor="#f1ba93"] ;
180 -> 181 ;
182 [label="children <= 1.5\ngini = 0.278\nsamples = 12\nvalue = [10, 2]\nclass = Low", fillcolor="#ea9a61"] ;
181 -> 182 ;
183 [label="gini = 0.0\nsamples = 5\nvalue = [5, 0]\nclass = Low", fillcolor="#e58139"] ;
182 -> 183 ;
184 [label="bmi <= 24.415\ngini = 0.408\nsamples = 7\nvalue = [5, 2]\nclass = Low", fillcolor="#efb388"] ;
182 -> 184 ;
185 [label="gini = 0.0\nsamples = 4\nvalue = [4, 0]\nclass = Low", fillcolor="#e58139"] ;
184 -> 185 ;
186 [label="age <= 43.5\ngini = 0.444\nsamples = 3\nvalue = [1, 2]\nclass = High", fillcolor="#9ccef2"] ;
184 -> 186 ;
187 [label="gini = 0.0\nsamples = 1\nvalue = [1, 0]\nclass = Low", fillcolor="#e58139"] ;
186 -> 187 ;
188 [label="gini = 0.0\nsamples = 2\nvalue = [0, 2]\nclass = High", fillcolor="#399de5"] ;
186 -> 188 ;
189 [label="sex <= 0.5\ngini = 0.375\nsamples = 4\nvalue = [1, 3]\nclass = High", fillcolor="#7bbeee"] ;
181 -> 189 ;
190 [label="gini = 0.0\nsamples = 3\nvalue = [0, 3]\nclass = High", fillcolor="#399de5"] ;
189 -> 190 ;
191 [label="gini = 0.0\nsamples = 1\nvalue = [1, 0]\nclass = Low", fillcolor="#e58139"] ;
189 -> 191 ;
192 [label="bmi <= 27.55\ngini = 0.18\nsamples = 50\nvalue = [45, 5]\nclass = Low", fillcolor="#e88f4f"] ;
180 -> 192 ;
193 [label="gini = 0.0\nsamples = 15\nvalue = [15, 0]\nclass = Low", fillcolor="#e58139"] ;
192 -> 193 ;
194 [label="bmi <= 27.682\ngini = 0.245\nsamples = 35\nvalue = [30, 5]\nclass = Low", fillcolor="#e9965a"] ;
192 -> 194 ;
195 [label="age <= 44.5\ngini = 0.444\nsamples = 3\nvalue = [1, 2]\nclass = High", fillcolor="#9ccef2"] ;
194 -> 195 ;
196 [label="gini = 0.0\nsamples = 1\nvalue = [1, 0]\nclass = Low", fillcolor="#e58139"] ;
195 -> 196 ;
197 [label="gini = 0.0\nsamples = 2\nvalue = [0, 2]\nclass = High", fillcolor="#399de5"] ;
195 -> 197 ;
198 [label="bmi <= 30.648\ngini = 0.17\nsamples = 32\nvalue = [29, 3]\nclass = Low", fillcolor="#e88e4d"] ;
194 -> 198 ;
199 [label="gini = 0.0\nsamples = 12\nvalue = [12, 0]\nclass = Low", fillcolor="#e58139"] ;
198 -> 199 ;
200 [label="bmi <= 31.903\ngini = 0.255\nsamples = 20\nvalue = [17, 3]\nclass = Low", fillcolor="#ea975c"] ;
198 -> 200 ;
201 [label="children <= 1.0\ngini = 0.444\nsamples = 3\nvalue = [1, 2]\nclass = High", fillcolor="#9ccef2"] ;
200 -> 201 ;
202 [label="gini = 0.0\nsamples = 1\nvalue = [0, 1]\nclass = High", fillcolor="#399de5"] ;
201 -> 202 ;
203 [label="children <= 2.5\ngini = 0.5\nsamples = 2\nvalue = [1, 1]\nclass = Low", fillcolor="#ffffff"] ;
201 -> 203 ;
204 [label="gini = 0.0\nsamples = 1\nvalue = [1, 0]\nclass = Low", fillcolor="#e58139"] ;
203 -> 204 ;
205 [label="gini = 0.0\nsamples = 1\nvalue = [0, 1]\nclass = High", fillcolor="#399de5"] ;
203 -> 205 ;
206 [label="age <= 43.5\ngini = 0.111\nsamples = 17\nvalue = [16, 1]\nclass = Low", fillcolor="#e78945"] ;
200 -> 206 ;
207 [label="bmi <= 34.945\ngini = 0.444\nsamples = 3\nvalue = [2, 1]\nclass = Low", fillcolor="#f2c09c"] ;
206 -> 207 ;
208 [label="gini = 0.0\nsamples = 2\nvalue = [2, 0]\nclass = Low", fillcolor="#e58139"] ;
207 -> 208 ;
209 [label="gini = 0.0\nsamples = 1\nvalue = [0, 1]\nclass = High", fillcolor="#399de5"] ;
207 -> 209 ;
210 [label="gini = 0.0\nsamples = 14\nvalue = [14, 0]\nclass = Low", fillcolor="#e58139"] ;
206 -> 210 ;
211 [label="gini = 0.0\nsamples = 3\nvalue = [0, 3]\nclass = High", fillcolor="#399de5"] ;
179 -> 211 ;
212 [label="children <= 2.5\ngini = 0.496\nsamples = 53\nvalue = [29, 24]\nclass = Low", fillcolor="#fbe9dd"] ;
2 -> 212 ;
213 [label="sex <= 0.5\ngini = 0.427\nsamples = 42\nvalue = [29, 13]\nclass = Low", fillcolor="#f1b992"] ;
212 -> 213 ;
214 [label="region <= 0.5\ngini = 0.497\nsamples = 24\nvalue = [13, 11]\nclass = Low", fillcolor="#fbece1"] ;
213 -> 214 ;
215 [label="bmi <= 25.792\ngini = 0.245\nsamples = 7\nvalue = [1, 6]\nclass = High", fillcolor="#5aade9"] ;
214 -> 215 ;
216 [label="gini = 0.0\nsamples = 1\nvalue = [1, 0]\nclass = Low", fillcolor="#e58139"] ;
215 -> 216 ;
217 [label="gini = 0.0\nsamples = 6\nvalue = [0, 6]\nclass = High", fillcolor="#399de5"] ;
215 -> 217 ;
218 [label="age <= 48.5\ngini = 0.415\nsamples = 17\nvalue = [12, 5]\nclass = Low", fillcolor="#f0b58b"] ;
214 -> 218 ;
219 [label="bmi <= 26.49\ngini = 0.165\nsamples = 11\nvalue = [10, 1]\nclass = Low", fillcolor="#e88e4d"] ;
218 -> 219 ;
220 [label="bmi <= 23.85\ngini = 0.444\nsamples = 3\nvalue = [2, 1]\nclass = Low", fillcolor="#f2c09c"] ;
219 -> 220 ;
221 [label="gini = 0.0\nsamples = 2\nvalue = [2, 0]\nclass = Low", fillcolor="#e58139"] ;
220 -> 221 ;
222 [label="gini = 0.0\nsamples = 1\nvalue = [0, 1]\nclass = High", fillcolor="#399de5"] ;
220 -> 222 ;
223 [label="gini = 0.0\nsamples = 8\nvalue = [8, 0]\nclass = Low", fillcolor="#e58139"] ;
219 -> 223 ;
224 [label="children <= 0.5\ngini = 0.444\nsamples = 6\nvalue = [2, 4]\nclass = High", fillcolor="#9ccef2"] ;
218 -> 224 ;
225 [label="gini = 0.0\nsamples = 2\nvalue = [2, 0]\nclass = Low", fillcolor="#e58139"] ;
224 -> 225 ;
226 [label="gini = 0.0\nsamples = 4\nvalue = [0, 4]\nclass = High", fillcolor="#399de5"] ;
224 -> 226 ;
227 [label="age <= 48.5\ngini = 0.198\nsamples = 18\nvalue = [16, 2]\nclass = Low", fillcolor="#e89152"] ;
213 -> 227 ;
228 [label="children <= 0.5\ngini = 0.278\nsamples = 12\nvalue = [10, 2]\nclass = Low", fillcolor="#ea9a61"] ;
227 -> 228 ;
229 [label="bmi <= 29.65\ngini = 0.5\nsamples = 2\nvalue = [1, 1]\nclass = Low", fillcolor="#ffffff"] ;
228 -> 229 ;
230 [label="gini = 0.0\nsamples = 1\nvalue = [0, 1]\nclass = High", fillcolor="#399de5"] ;
229 -> 230 ;
231 [label="gini = 0.0\nsamples = 1\nvalue = [1, 0]\nclass = Low", fillcolor="#e58139"] ;
229 -> 231 ;
232 [label="bmi <= 36.435\ngini = 0.18\nsamples = 10\nvalue = [9, 1]\nclass = Low", fillcolor="#e88f4f"] ;
228 -> 232 ;
233 [label="gini = 0.0\nsamples = 7\nvalue = [7, 0]\nclass = Low", fillcolor="#e58139"] ;
232 -> 233 ;
234 [label="region <= 1.5\ngini = 0.444\nsamples = 3\nvalue = [2, 1]\nclass = Low", fillcolor="#f2c09c"] ;
232 -> 234 ;
235 [label="gini = 0.0\nsamples = 1\nvalue = [0, 1]\nclass = High", fillcolor="#399de5"] ;
234 -> 235 ;
236 [label="gini = 0.0\nsamples = 2\nvalue = [2, 0]\nclass = Low", fillcolor="#e58139"] ;
234 -> 236 ;
237 [label="gini = 0.0\nsamples = 6\nvalue = [6, 0]\nclass = Low", fillcolor="#e58139"] ;
227 -> 237 ;
238 [label="gini = 0.0\nsamples = 11\nvalue = [0, 11]\nclass = High", fillcolor="#399de5"] ;
212 -> 238 ;
239 [label="gini = 0.0\nsamples = 167\nvalue = [0, 167]\nclass = High", fillcolor="#399de5"] ;
1 -> 239 ;
240 [label="age <= 51.5\ngini = 0.079\nsamples = 314\nvalue = [13, 301]\nclass = High", fillcolor="#42a1e6"] ;
0 -> 240 [labeldistance=2.5, labelangle=-45, headlabel="False"] ;
241 [label="children <= 0.5\ngini = 0.359\nsamples = 47\nvalue = [11, 36]\nclass = High", fillcolor="#76bbed"] ;
240 -> 241 ;
242 [label="sex <= 0.5\ngini = 0.426\nsamples = 13\nvalue = [9, 4]\nclass = Low", fillcolor="#f1b991"] ;
241 -> 242 ;
243 [label="bmi <= 23.98\ngini = 0.32\nsamples = 5\nvalue = [1, 4]\nclass = High", fillcolor="#6ab6ec"] ;
242 -> 243 ;
244 [label="gini = 0.0\nsamples = 1\nvalue = [1, 0]\nclass = Low", fillcolor="#e58139"] ;
243 -> 244 ;
245 [label="gini = 0.0\nsamples = 4\nvalue = [0, 4]\nclass = High", fillcolor="#399de5"] ;
243 -> 245 ;
246 [label="gini = 0.0\nsamples = 8\nvalue = [8, 0]\nclass = Low", fillcolor="#e58139"] ;
242 -> 246 ;
247 [label="bmi <= 37.06\ngini = 0.111\nsamples = 34\nvalue = [2, 32]\nclass = High", fillcolor="#45a3e7"] ;
241 -> 247 ;
248 [label="gini = 0.0\nsamples = 27\nvalue = [0, 27]\nclass = High", fillcolor="#399de5"] ;
247 -> 248 ;
249 [label="age <= 50.5\ngini = 0.408\nsamples = 7\nvalue = [2, 5]\nclass = High", fillcolor="#88c4ef"] ;
247 -> 249 ;
250 [label="sex <= 0.5\ngini = 0.444\nsamples = 3\nvalue = [2, 1]\nclass = Low", fillcolor="#f2c09c"] ;
249 -> 250 ;
251 [label="gini = 0.0\nsamples = 1\nvalue = [0, 1]\nclass = High", fillcolor="#399de5"] ;
250 -> 251 ;
252 [label="gini = 0.0\nsamples = 2\nvalue = [2, 0]\nclass = Low", fillcolor="#e58139"] ;
250 -> 252 ;
253 [label="gini = 0.0\nsamples = 4\nvalue = [0, 4]\nclass = High", fillcolor="#399de5"] ;
249 -> 253 ;
254 [label="age <= 52.5\ngini = 0.015\nsamples = 267\nvalue = [2, 265]\nclass = High", fillcolor="#3a9ee5"] ;
240 -> 254 ;
255 [label="children <= 0.5\ngini = 0.172\nsamples = 21\nvalue = [2, 19]\nclass = High", fillcolor="#4ea7e8"] ;
254 -> 255 ;
256 [label="sex <= 0.5\ngini = 0.408\nsamples = 7\nvalue = [2, 5]\nclass = High", fillcolor="#88c4ef"] ;
255 -> 256 ;
257 [label="gini = 0.0\nsamples = 4\nvalue = [0, 4]\nclass = High", fillcolor="#399de5"] ;
256 -> 257 ;
258 [label="region <= 1.0\ngini = 0.444\nsamples = 3\nvalue = [2, 1]\nclass = Low", fillcolor="#f2c09c"] ;
256 -> 258 ;
259 [label="gini = 0.0\nsamples = 1\nvalue = [0, 1]\nclass = High", fillcolor="#399de5"] ;
258 -> 259 ;
260 [label="gini = 0.0\nsamples = 2\nvalue = [2, 0]\nclass = Low", fillcolor="#e58139"] ;
258 -> 260 ;
261 [label="gini = 0.0\nsamples = 14\nvalue = [0, 14]\nclass = High", fillcolor="#399de5"] ;
255 -> 261 ;
262 [label="gini = 0.0\nsamples = 246\nvalue = [0, 246]\nclass = High", fillcolor="#399de5"] ;
254 -> 262 ;
}